#pragma once
#include <cstdarg>
namespace Eloquent {
    namespace ML {
        namespace Port {
            class Classifier {
                public:
                    /**
                    * Predict class for features vector
                    */
                    int predict(float *x) {
                        uint8_t votes[2] = { 0 };
                        // tree #1
                        if (x[4] <= 4.608500003814697) {
                            if (x[1] <= 0.24500000476837158) {
                                if (x[1] <= -0.3629999905824661) {
                                    if (x[5] <= 29.357999801635742) {
                                        if (x[3] <= -10.680999755859375) {
                                            if (x[5] <= -80.3219985961914) {
                                                votes[0] += 1;
                                            }

                                            else {
                                                if (x[1] <= -0.7639999985694885) {
                                                    votes[0] += 1;
                                                }

                                                else {
                                                    if (x[1] <= -0.6180000007152557) {
                                                        if (x[2] <= -0.16300000250339508) {
                                                            votes[1] += 1;
                                                        }

                                                        else {
                                                            votes[0] += 1;
                                                        }
                                                    }

                                                    else {
                                                        if (x[0] <= 0.9390000104904175) {
                                                            if (x[0] <= 0.8855000138282776) {
                                                                votes[1] += 1;
                                                            }

                                                            else {
                                                                votes[0] += 1;
                                                            }
                                                        }

                                                        else {
                                                            votes[1] += 1;
                                                        }
                                                    }
                                                }
                                            }
                                        }

                                        else {
                                            if (x[4] <= -12.02400016784668) {
                                                if (x[0] <= 0.8734999895095825) {
                                                    votes[0] += 1;
                                                }

                                                else {
                                                    votes[1] += 1;
                                                }
                                            }

                                            else {
                                                if (x[2] <= 1.6860000491142273) {
                                                    votes[0] += 1;
                                                }

                                                else {
                                                    votes[1] += 1;
                                                }
                                            }
                                        }
                                    }

                                    else {
                                        if (x[3] <= -30.212499618530273) {
                                            if (x[0] <= 0.5534999966621399) {
                                                votes[0] += 1;
                                            }

                                            else {
                                                votes[1] += 1;
                                            }
                                        }

                                        else {
                                            if (x[3] <= 216.1865005493164) {
                                                if (x[3] <= 144.89749908447266) {
                                                    if (x[2] <= 1.418999969959259) {
                                                        if (x[3] <= 129.9739990234375) {
                                                            if (x[0] <= 1.6279999613761902) {
                                                                votes[0] += 1;
                                                            }

                                                            else {
                                                                votes[1] += 1;
                                                            }
                                                        }

                                                        else {
                                                            if (x[1] <= -1.3875000476837158) {
                                                                votes[1] += 1;
                                                            }

                                                            else {
                                                                votes[0] += 1;
                                                            }
                                                        }
                                                    }

                                                    else {
                                                        votes[1] += 1;
                                                    }
                                                }

                                                else {
                                                    if (x[5] <= 145.20299911499023) {
                                                        votes[1] += 1;
                                                    }

                                                    else {
                                                        votes[0] += 1;
                                                    }
                                                }
                                            }

                                            else {
                                                votes[1] += 1;
                                            }
                                        }
                                    }
                                }

                                else {
                                    if (x[5] <= 74.4020004272461) {
                                        if (x[2] <= 0.6860000193119049) {
                                            if (x[4] <= 1.5565000176429749) {
                                                if (x[3] <= 80.44400024414062) {
                                                    if (x[3] <= 4.700000047683716) {
                                                        if (x[1] <= -0.3254999965429306) {
                                                            if (x[4] <= -5.615000009536743) {
                                                                votes[1] += 1;
                                                            }

                                                            else {
                                                                if (x[4] <= -3.2960000038146973) {
                                                                    if (x[0] <= 1.0069999992847443) {
                                                                        votes[0] += 1;
                                                                    }

                                                                    else {
                                                                        votes[1] += 1;
                                                                    }
                                                                }

                                                                else {
                                                                    votes[1] += 1;
                                                                }
                                                            }
                                                        }

                                                        else {
                                                            if (x[2] <= 0.6735000014305115) {
                                                                if (x[2] <= 0.079500000923872) {
                                                                    votes[1] += 1;
                                                                }

                                                                else {
                                                                    if (x[5] <= -104.58399772644043) {
                                                                        votes[0] += 1;
                                                                    }

                                                                    else {
                                                                        if (x[3] <= -6.164999961853027) {
                                                                            votes[1] += 1;
                                                                        }

                                                                        else {
                                                                            if (x[0] <= 0.94200000166893) {
                                                                                votes[1] += 1;
                                                                            }

                                                                            else {
                                                                                if (x[4] <= -9.490999698638916) {
                                                                                    votes[1] += 1;
                                                                                }

                                                                                else {
                                                                                    if (x[1] <= -0.2029999941587448) {
                                                                                        if (x[5] <= 1.5260000228881836) {
                                                                                            votes[1] += 1;
                                                                                        }

                                                                                        else {
                                                                                            votes[0] += 1;
                                                                                        }
                                                                                    }

                                                                                    else {
                                                                                        votes[1] += 1;
                                                                                    }
                                                                                }
                                                                            }
                                                                        }
                                                                    }
                                                                }
                                                            }

                                                            else {
                                                                if (x[4] <= -27.770999908447266) {
                                                                    votes[1] += 1;
                                                                }

                                                                else {
                                                                    votes[0] += 1;
                                                                }
                                                            }
                                                        }
                                                    }

                                                    else {
                                                        if (x[2] <= 0.2849999964237213) {
                                                            if (x[1] <= -0.330499991774559) {
                                                                votes[0] += 1;
                                                            }

                                                            else {
                                                                if (x[4] <= -1.6175000071525574) {
                                                                    if (x[3] <= 5.767499923706055) {
                                                                        if (x[2] <= -0.017000000923871994) {
                                                                            votes[1] += 1;
                                                                        }

                                                                        else {
                                                                            votes[0] += 1;
                                                                        }
                                                                    }

                                                                    else {
                                                                        votes[1] += 1;
                                                                    }
                                                                }

                                                                else {
                                                                    if (x[0] <= 0.9180000126361847) {
                                                                        votes[1] += 1;
                                                                    }

                                                                    else {
                                                                        if (x[2] <= 0.12849999964237213) {
                                                                            votes[0] += 1;
                                                                        }

                                                                        else {
                                                                            votes[1] += 1;
                                                                        }
                                                                    }
                                                                }
                                                            }
                                                        }

                                                        else {
                                                            if (x[5] <= 11.749000370502472) {
                                                                if (x[1] <= -0.25999999791383743) {
                                                                    votes[0] += 1;
                                                                }

                                                                else {
                                                                    votes[1] += 1;
                                                                }
                                                            }

                                                            else {
                                                                votes[0] += 1;
                                                            }
                                                        }
                                                    }
                                                }

                                                else {
                                                    votes[0] += 1;
                                                }
                                            }

                                            else {
                                                if (x[5] <= -62.62249946594238) {
                                                    votes[0] += 1;
                                                }

                                                else {
                                                    if (x[5] <= 26.58099937438965) {
                                                        if (x[3] <= 11.291500091552734) {
                                                            if (x[1] <= -0.3579999953508377) {
                                                                if (x[4] <= 3.0825001001358032) {
                                                                    votes[1] += 1;
                                                                }

                                                                else {
                                                                    votes[0] += 1;
                                                                }
                                                            }

                                                            else {
                                                                if (x[0] <= 0.8264999985694885) {
                                                                    if (x[3] <= 4.120000004768372) {
                                                                        votes[1] += 1;
                                                                    }

                                                                    else {
                                                                        if (x[0] <= 0.7770000100135803) {
                                                                            votes[1] += 1;
                                                                        }

                                                                        else {
                                                                            votes[0] += 1;
                                                                        }
                                                                    }
                                                                }

                                                                else {
                                                                    if (x[2] <= 0.0644999984651804) {
                                                                        votes[1] += 1;
                                                                    }

                                                                    else {
                                                                        if (x[5] <= 10.650500059127808) {
                                                                            if (x[3] <= -4.150500059127808) {
                                                                                votes[1] += 1;
                                                                            }

                                                                            else {
                                                                                if (x[0] <= 0.9379999935626984) {
                                                                                    votes[1] += 1;
                                                                                }

                                                                                else {
                                                                                    votes[0] += 1;
                                                                                }
                                                                            }
                                                                        }

                                                                        else {
                                                                            votes[0] += 1;
                                                                        }
                                                                    }
                                                                }
                                                            }
                                                        }

                                                        else {
                                                            if (x[1] <= 0.013000000268220901) {
                                                                if (x[2] <= -0.07650000229477882) {
                                                                    votes[1] += 1;
                                                                }

                                                                else {
                                                                    if (x[5] <= -7.17199981212616) {
                                                                        votes[0] += 1;
                                                                    }

                                                                    else {
                                                                        if (x[0] <= 0.9525000154972076) {
                                                                            votes[0] += 1;
                                                                        }

                                                                        else {
                                                                            votes[1] += 1;
                                                                        }
                                                                    }
                                                                }
                                                            }

                                                            else {
                                                                votes[1] += 1;
                                                            }
                                                        }
                                                    }

                                                    else {
                                                        if (x[0] <= 0.9284999966621399) {
                                                            votes[0] += 1;
                                                        }

                                                        else {
                                                            votes[1] += 1;
                                                        }
                                                    }
                                                }
                                            }
                                        }

                                        else {
                                            if (x[0] <= 0.7040000259876251) {
                                                if (x[5] <= -105.19450378417969) {
                                                    votes[0] += 1;
                                                }

                                                else {
                                                    votes[1] += 1;
                                                }
                                            }

                                            else {
                                                votes[1] += 1;
                                            }
                                        }
                                    }

                                    else {
                                        if (x[0] <= 1.3759999871253967) {
                                            if (x[5] <= 78.00300216674805) {
                                                if (x[4] <= -3.265500068664551) {
                                                    votes[0] += 1;
                                                }

                                                else {
                                                    votes[1] += 1;
                                                }
                                            }

                                            else {
                                                votes[0] += 1;
                                            }
                                        }

                                        else {
                                            votes[1] += 1;
                                        }
                                    }
                                }
                            }

                            else {
                                if (x[2] <= -0.08399999886751175) {
                                    votes[1] += 1;
                                }

                                else {
                                    if (x[5] <= -2.624500036239624) {
                                        votes[0] += 1;
                                    }

                                    else {
                                        if (x[0] <= 0.6419999897480011) {
                                            if (x[3] <= 268.2800064086914) {
                                                votes[0] += 1;
                                            }

                                            else {
                                                votes[1] += 1;
                                            }
                                        }

                                        else {
                                            votes[1] += 1;
                                        }
                                    }
                                }
                            }
                        }

                        else {
                            if (x[0] <= 0.8664999902248383) {
                                if (x[2] <= -0.2474999949336052) {
                                    if (x[3] <= 52.2765007019043) {
                                        if (x[2] <= -0.5020000040531158) {
                                            votes[1] += 1;
                                        }

                                        else {
                                            if (x[1] <= -0.22100000083446503) {
                                                votes[0] += 1;
                                            }

                                            else {
                                                votes[1] += 1;
                                            }
                                        }
                                    }

                                    else {
                                        votes[0] += 1;
                                    }
                                }

                                else {
                                    if (x[0] <= 0.7725000083446503) {
                                        if (x[4] <= 111.48099899291992) {
                                            if (x[1] <= -0.2474999949336052) {
                                                votes[0] += 1;
                                            }

                                            else {
                                                if (x[0] <= 0.6990000009536743) {
                                                    if (x[0] <= 0.5464999973773956) {
                                                        if (x[1] <= 0.5459999740123749) {
                                                            if (x[2] <= 0.041999999433755875) {
                                                                votes[1] += 1;
                                                            }

                                                            else {
                                                                if (x[3] <= 325.98899841308594) {
                                                                    if (x[4] <= 79.16299819946289) {
                                                                        votes[0] += 1;
                                                                    }

                                                                    else {
                                                                        if (x[0] <= 0.22500000149011612) {
                                                                            votes[1] += 1;
                                                                        }

                                                                        else {
                                                                            if (x[0] <= 0.37450000643730164) {
                                                                                votes[0] += 1;
                                                                            }

                                                                            else {
                                                                                votes[1] += 1;
                                                                            }
                                                                        }
                                                                    }
                                                                }

                                                                else {
                                                                    votes[1] += 1;
                                                                }
                                                            }
                                                        }

                                                        else {
                                                            if (x[2] <= 1.2639999985694885) {
                                                                if (x[1] <= 1.7384999990463257) {
                                                                    if (x[2] <= 0.8810000121593475) {
                                                                        votes[0] += 1;
                                                                    }

                                                                    else {
                                                                        if (x[2] <= 0.8844999969005585) {
                                                                            votes[1] += 1;
                                                                        }

                                                                        else {
                                                                            votes[0] += 1;
                                                                        }
                                                                    }
                                                                }

                                                                else {
                                                                    if (x[2] <= 0.714000016450882) {
                                                                        votes[0] += 1;
                                                                    }

                                                                    else {
                                                                        votes[1] += 1;
                                                                    }
                                                                }
                                                            }

                                                            else {
                                                                if (x[3] <= 175.2015037536621) {
                                                                    votes[1] += 1;
                                                                }

                                                                else {
                                                                    votes[0] += 1;
                                                                }
                                                            }
                                                        }
                                                    }

                                                    else {
                                                        if (x[4] <= 51.94099998474121) {
                                                            if (x[1] <= 0.032999999821186066) {
                                                                if (x[2] <= 0.3499999940395355) {
                                                                    votes[1] += 1;
                                                                }

                                                                else {
                                                                    votes[0] += 1;
                                                                }
                                                            }

                                                            else {
                                                                votes[0] += 1;
                                                            }
                                                        }

                                                        else {
                                                            votes[1] += 1;
                                                        }
                                                    }
                                                }

                                                else {
                                                    if (x[2] <= 0.2135000042617321) {
                                                        votes[1] += 1;
                                                    }

                                                    else {
                                                        if (x[4] <= 46.478498458862305) {
                                                            if (x[4] <= 5.248999834060669) {
                                                                if (x[5] <= 98.5414981842041) {
                                                                    votes[1] += 1;
                                                                }

                                                                else {
                                                                    votes[0] += 1;
                                                                }
                                                            }

                                                            else {
                                                                votes[0] += 1;
                                                            }
                                                        }

                                                        else {
                                                            votes[1] += 1;
                                                        }
                                                    }
                                                }
                                            }
                                        }

                                        else {
                                            if (x[3] <= -44.34199905395508) {
                                                votes[0] += 1;
                                            }

                                            else {
                                                if (x[2] <= 0.5664999932050705) {
                                                    if (x[2] <= 0.12149999663233757) {
                                                        if (x[1] <= 1.1359999775886536) {
                                                            votes[1] += 1;
                                                        }

                                                        else {
                                                            votes[0] += 1;
                                                        }
                                                    }

                                                    else {
                                                        if (x[3] <= -34.667999267578125) {
                                                            votes[1] += 1;
                                                        }

                                                        else {
                                                            votes[0] += 1;
                                                        }
                                                    }
                                                }

                                                else {
                                                    votes[1] += 1;
                                                }
                                            }
                                        }
                                    }

                                    else {
                                        if (x[2] <= 0.3489999920129776) {
                                            if (x[1] <= -0.1574999988079071) {
                                                if (x[4] <= 62.86599922180176) {
                                                    votes[0] += 1;
                                                }

                                                else {
                                                    if (x[2] <= -0.18299999833106995) {
                                                        votes[1] += 1;
                                                    }

                                                    else {
                                                        votes[0] += 1;
                                                    }
                                                }
                                            }

                                            else {
                                                if (x[4] <= 37.017499923706055) {
                                                    votes[1] += 1;
                                                }

                                                else {
                                                    if (x[3] <= 3.4790000915527344) {
                                                        votes[1] += 1;
                                                    }

                                                    else {
                                                        votes[0] += 1;
                                                    }
                                                }
                                            }
                                        }

                                        else {
                                            if (x[5] <= -30.548500061035156) {
                                                votes[0] += 1;
                                            }

                                            else {
                                                if (x[1] <= 0.2150000035762787) {
                                                    votes[1] += 1;
                                                }

                                                else {
                                                    if (x[2] <= 0.6060000061988831) {
                                                        votes[0] += 1;
                                                    }

                                                    else {
                                                        votes[1] += 1;
                                                    }
                                                }
                                            }
                                        }
                                    }
                                }
                            }

                            else {
                                if (x[5] <= -32.5625) {
                                    if (x[3] <= -16.296500205993652) {
                                        if (x[2] <= -0.19550000317394733) {
                                            votes[1] += 1;
                                        }

                                        else {
                                            votes[0] += 1;
                                        }
                                    }

                                    else {
                                        votes[1] += 1;
                                    }
                                }

                                else {
                                    if (x[1] <= -0.41099999845027924) {
                                        if (x[0] <= 0.9839999973773956) {
                                            if (x[1] <= -1.4269999861717224) {
                                                votes[1] += 1;
                                            }

                                            else {
                                                if (x[0] <= 0.9280000030994415) {
                                                    if (x[4] <= 39.36750030517578) {
                                                        votes[0] += 1;
                                                    }

                                                    else {
                                                        if (x[4] <= 41.13749885559082) {
                                                            votes[1] += 1;
                                                        }

                                                        else {
                                                            votes[0] += 1;
                                                        }
                                                    }
                                                }

                                                else {
                                                    if (x[1] <= -0.5505000054836273) {
                                                        votes[1] += 1;
                                                    }

                                                    else {
                                                        votes[0] += 1;
                                                    }
                                                }
                                            }
                                        }

                                        else {
                                            votes[1] += 1;
                                        }
                                    }

                                    else {
                                        if (x[0] <= 0.9314999878406525) {
                                            if (x[5] <= 55.84750175476074) {
                                                if (x[3] <= 20.721500396728516) {
                                                    if (x[0] <= 0.901500016450882) {
                                                        if (x[0] <= 0.8995000123977661) {
                                                            if (x[2] <= 0.2070000022649765) {
                                                                if (x[5] <= 22.125) {
                                                                    if (x[0] <= 0.8754999935626984) {
                                                                        votes[0] += 1;
                                                                    }

                                                                    else {
                                                                        if (x[0] <= 0.8894999921321869) {
                                                                            votes[1] += 1;
                                                                        }

                                                                        else {
                                                                            if (x[2] <= -0.13100000098347664) {
                                                                                votes[1] += 1;
                                                                            }

                                                                            else {
                                                                                votes[0] += 1;
                                                                            }
                                                                        }
                                                                    }
                                                                }

                                                                else {
                                                                    votes[1] += 1;
                                                                }
                                                            }

                                                            else {
                                                                votes[1] += 1;
                                                            }
                                                        }

                                                        else {
                                                            votes[0] += 1;
                                                        }
                                                    }

                                                    else {
                                                        votes[1] += 1;
                                                    }
                                                }

                                                else {
                                                    if (x[1] <= -0.12999999895691872) {
                                                        if (x[3] <= 28.747499465942383) {
                                                            votes[0] += 1;
                                                        }

                                                        else {
                                                            votes[1] += 1;
                                                        }
                                                    }

                                                    else {
                                                        votes[1] += 1;
                                                    }
                                                }
                                            }

                                            else {
                                                if (x[1] <= 0.020500000566244125) {
                                                    votes[0] += 1;
                                                }

                                                else {
                                                    votes[1] += 1;
                                                }
                                            }
                                        }

                                        else {
                                            if (x[0] <= 0.9364999830722809) {
                                                if (x[3] <= 12.421000003814697) {
                                                    votes[1] += 1;
                                                }

                                                else {
                                                    votes[0] += 1;
                                                }
                                            }

                                            else {
                                                votes[1] += 1;
                                            }
                                        }
                                    }
                                }
                            }
                        }

                        // tree #2
                        if (x[1] <= 0.4845000058412552) {
                            if (x[5] <= -49.529998779296875) {
                                if (x[0] <= 0.9484999775886536) {
                                    if (x[3] <= -6.25600004196167) {
                                        if (x[0] <= 0.9040000140666962) {
                                            if (x[0] <= 0.8499999940395355) {
                                                if (x[1] <= -0.30149999260902405) {
                                                    votes[0] += 1;
                                                }

                                                else {
                                                    if (x[5] <= -77.14850044250488) {
                                                        votes[0] += 1;
                                                    }

                                                    else {
                                                        votes[1] += 1;
                                                    }
                                                }
                                            }

                                            else {
                                                if (x[3] <= -54.59549903869629) {
                                                    votes[0] += 1;
                                                }

                                                else {
                                                    if (x[4] <= -9.704499244689941) {
                                                        votes[1] += 1;
                                                    }

                                                    else {
                                                        votes[0] += 1;
                                                    }
                                                }
                                            }
                                        }

                                        else {
                                            if (x[1] <= -0.3554999828338623) {
                                                votes[0] += 1;
                                            }

                                            else {
                                                votes[1] += 1;
                                            }
                                        }
                                    }

                                    else {
                                        if (x[3] <= -5.523499965667725) {
                                            votes[1] += 1;
                                        }

                                        else {
                                            if (x[0] <= 0.8669999837875366) {
                                                if (x[1] <= -0.26899999380111694) {
                                                    votes[0] += 1;
                                                }

                                                else {
                                                    if (x[5] <= -144.7750015258789) {
                                                        votes[0] += 1;
                                                    }

                                                    else {
                                                        votes[1] += 1;
                                                    }
                                                }
                                            }

                                            else {
                                                votes[1] += 1;
                                            }
                                        }
                                    }
                                }

                                else {
                                    if (x[1] <= -0.7495000064373016) {
                                        if (x[5] <= -146.72850036621094) {
                                            if (x[1] <= -2.3385000228881836) {
                                                votes[1] += 1;
                                            }

                                            else {
                                                votes[0] += 1;
                                            }
                                        }

                                        else {
                                            if (x[0] <= 1.5664999783039093) {
                                                votes[0] += 1;
                                            }

                                            else {
                                                votes[1] += 1;
                                            }
                                        }
                                    }

                                    else {
                                        votes[1] += 1;
                                    }
                                }
                            }

                            else {
                                if (x[1] <= -0.3764999955892563) {
                                    if (x[4] <= 105.71249771118164) {
                                        if (x[3] <= -102.96650314331055) {
                                            if (x[4] <= 26.123000144958496) {
                                                votes[1] += 1;
                                            }

                                            else {
                                                if (x[2] <= -0.9745000302791595) {
                                                    votes[1] += 1;
                                                }

                                                else {
                                                    votes[0] += 1;
                                                }
                                            }
                                        }

                                        else {
                                            if (x[1] <= -0.5154999792575836) {
                                                if (x[3] <= 204.59000396728516) {
                                                    if (x[1] <= -2.2029999494552612) {
                                                        if (x[2] <= 0.6144999861717224) {
                                                            if (x[0] <= 1.6555000245571136) {
                                                                votes[0] += 1;
                                                            }

                                                            else {
                                                                votes[1] += 1;
                                                            }
                                                        }

                                                        else {
                                                            votes[1] += 1;
                                                        }
                                                    }

                                                    else {
                                                        if (x[0] <= 1.0285000205039978) {
                                                            if (x[5] <= -47.91300010681152) {
                                                                if (x[2] <= -0.22450000047683716) {
                                                                    votes[1] += 1;
                                                                }

                                                                else {
                                                                    votes[0] += 1;
                                                                }
                                                            }

                                                            else {
                                                                if (x[0] <= 0.9259999990463257) {
                                                                    votes[0] += 1;
                                                                }

                                                                else {
                                                                    if (x[2] <= -0.16349999979138374) {
                                                                        votes[1] += 1;
                                                                    }

                                                                    else {
                                                                        if (x[2] <= 0.6919999867677689) {
                                                                            votes[0] += 1;
                                                                        }

                                                                        else {
                                                                            votes[1] += 1;
                                                                        }
                                                                    }
                                                                }
                                                            }
                                                        }

                                                        else {
                                                            votes[1] += 1;
                                                        }
                                                    }
                                                }

                                                else {
                                                    if (x[1] <= -0.7210000157356262) {
                                                        votes[1] += 1;
                                                    }

                                                    else {
                                                        votes[0] += 1;
                                                    }
                                                }
                                            }

                                            else {
                                                if (x[2] <= 0.023000000044703484) {
                                                    if (x[4] <= -11.93250036239624) {
                                                        if (x[0] <= 0.9024999737739563) {
                                                            if (x[0] <= 0.8474999964237213) {
                                                                votes[1] += 1;
                                                            }

                                                            else {
                                                                votes[0] += 1;
                                                            }
                                                        }

                                                        else {
                                                            votes[1] += 1;
                                                        }
                                                    }

                                                    else {
                                                        if (x[0] <= 0.9359999895095825) {
                                                            if (x[2] <= -0.35500000417232513) {
                                                                votes[1] += 1;
                                                            }

                                                            else {
                                                                if (x[0] <= 0.8154999911785126) {
                                                                    if (x[3] <= 9.765499830245972) {
                                                                        if (x[1] <= -0.4235000014305115) {
                                                                            if (x[3] <= -52.12399864196777) {
                                                                                votes[0] += 1;
                                                                            }

                                                                            else {
                                                                                votes[1] += 1;
                                                                            }
                                                                        }

                                                                        else {
                                                                            votes[0] += 1;
                                                                        }
                                                                    }

                                                                    else {
                                                                        votes[1] += 1;
                                                                    }
                                                                }

                                                                else {
                                                                    votes[0] += 1;
                                                                }
                                                            }
                                                        }

                                                        else {
                                                            votes[1] += 1;
                                                        }
                                                    }
                                                }

                                                else {
                                                    if (x[0] <= 1.1005000472068787) {
                                                        if (x[3] <= 2.0755000710487366) {
                                                            if (x[3] <= -0.7935000061988831) {
                                                                if (x[1] <= -0.39650000631809235) {
                                                                    votes[0] += 1;
                                                                }

                                                                else {
                                                                    votes[1] += 1;
                                                                }
                                                            }

                                                            else {
                                                                votes[1] += 1;
                                                            }
                                                        }

                                                        else {
                                                            if (x[1] <= -0.4689999967813492) {
                                                                if (x[2] <= 1.121000051498413) {
                                                                    votes[0] += 1;
                                                                }

                                                                else {
                                                                    votes[1] += 1;
                                                                }
                                                            }

                                                            else {
                                                                votes[0] += 1;
                                                            }
                                                        }
                                                    }

                                                    else {
                                                        votes[1] += 1;
                                                    }
                                                }
                                            }
                                        }
                                    }

                                    else {
                                        votes[1] += 1;
                                    }
                                }

                                else {
                                    if (x[0] <= 0.612500011920929) {
                                        if (x[3] <= 36.6515007019043) {
                                            if (x[5] <= 180.41999626159668) {
                                                if (x[5] <= -41.41250038146973) {
                                                    votes[0] += 1;
                                                }

                                                else {
                                                    votes[1] += 1;
                                                }
                                            }

                                            else {
                                                votes[0] += 1;
                                            }
                                        }

                                        else {
                                            if (x[2] <= -0.40500000678002834) {
                                                votes[1] += 1;
                                            }

                                            else {
                                                if (x[4] <= 69.82449913024902) {
                                                    if (x[0] <= -0.5534999966621399) {
                                                        votes[1] += 1;
                                                    }

                                                    else {
                                                        votes[0] += 1;
                                                    }
                                                }

                                                else {
                                                    votes[1] += 1;
                                                }
                                            }
                                        }
                                    }

                                    else {
                                        if (x[3] <= 1.4955000281333923) {
                                            if (x[3] <= -6.134500026702881) {
                                                if (x[1] <= -0.3725000023841858) {
                                                    if (x[5] <= 11.902000188827515) {
                                                        votes[0] += 1;
                                                    }

                                                    else {
                                                        votes[1] += 1;
                                                    }
                                                }

                                                else {
                                                    if (x[1] <= -0.351500004529953) {
                                                        if (x[1] <= -0.35249999165534973) {
                                                            if (x[5] <= -14.800999641418457) {
                                                                if (x[0] <= 0.8870000243186951) {
                                                                    votes[0] += 1;
                                                                }

                                                                else {
                                                                    votes[1] += 1;
                                                                }
                                                            }

                                                            else {
                                                                votes[1] += 1;
                                                            }
                                                        }

                                                        else {
                                                            if (x[0] <= 0.9679999947547913) {
                                                                votes[0] += 1;
                                                            }

                                                            else {
                                                                votes[1] += 1;
                                                            }
                                                        }
                                                    }

                                                    else {
                                                        votes[1] += 1;
                                                    }
                                                }
                                            }

                                            else {
                                                if (x[5] <= 12.298500061035156) {
                                                    if (x[1] <= -0.24449999630451202) {
                                                        if (x[1] <= -0.24949999153614044) {
                                                            if (x[5] <= 0.3664999008178711) {
                                                                votes[1] += 1;
                                                            }

                                                            else {
                                                                if (x[5] <= 3.845499873161316) {
                                                                    votes[0] += 1;
                                                                }

                                                                else {
                                                                    votes[1] += 1;
                                                                }
                                                            }
                                                        }

                                                        else {
                                                            votes[0] += 1;
                                                        }
                                                    }

                                                    else {
                                                        votes[1] += 1;
                                                    }
                                                }

                                                else {
                                                    if (x[0] <= 0.9390000104904175) {
                                                        if (x[1] <= -0.25999999791383743) {
                                                            votes[0] += 1;
                                                        }

                                                        else {
                                                            votes[1] += 1;
                                                        }
                                                    }

                                                    else {
                                                        if (x[5] <= 23.742499351501465) {
                                                            if (x[2] <= -0.11299999803304672) {
                                                                votes[1] += 1;
                                                            }

                                                            else {
                                                                votes[0] += 1;
                                                            }
                                                        }

                                                        else {
                                                            votes[1] += 1;
                                                        }
                                                    }
                                                }
                                            }
                                        }

                                        else {
                                            if (x[2] <= -0.053999999538064) {
                                                if (x[5] <= 70.22100067138672) {
                                                    if (x[0] <= 0.8540000021457672) {
                                                        if (x[5] <= 10.009999752044678) {
                                                            if (x[0] <= 0.7970000207424164) {
                                                                votes[1] += 1;
                                                            }

                                                            else {
                                                                if (x[4] <= 9.643500089645386) {
                                                                    if (x[4] <= 2.1054999828338623) {
                                                                        if (x[4] <= 1.67849999666214) {
                                                                            votes[0] += 1;
                                                                        }

                                                                        else {
                                                                            votes[1] += 1;
                                                                        }
                                                                    }

                                                                    else {
                                                                        votes[0] += 1;
                                                                    }
                                                                }

                                                                else {
                                                                    votes[1] += 1;
                                                                }
                                                            }
                                                        }

                                                        else {
                                                            if (x[1] <= -0.07850000262260437) {
                                                                votes[0] += 1;
                                                            }

                                                            else {
                                                                votes[1] += 1;
                                                            }
                                                        }
                                                    }

                                                    else {
                                                        votes[1] += 1;
                                                    }
                                                }

                                                else {
                                                    votes[0] += 1;
                                                }
                                            }

                                            else {
                                                if (x[0] <= 0.9600000083446503) {
                                                    if (x[2] <= 0.4845000058412552) {
                                                        if (x[5] <= -12.634000301361084) {
                                                            votes[1] += 1;
                                                        }

                                                        else {
                                                            if (x[0] <= 0.9084999859333038) {
                                                                if (x[3] <= 1.8615000247955322) {
                                                                    votes[1] += 1;
                                                                }

                                                                else {
                                                                    votes[0] += 1;
                                                                }
                                                            }

                                                            else {
                                                                if (x[4] <= 6.836000204086304) {
                                                                    votes[0] += 1;
                                                                }

                                                                else {
                                                                    if (x[0] <= 0.9274999797344208) {
                                                                        votes[1] += 1;
                                                                    }

                                                                    else {
                                                                        if (x[4] <= 9.094000339508057) {
                                                                            votes[1] += 1;
                                                                        }

                                                                        else {
                                                                            if (x[3] <= 13.183499813079834) {
                                                                                votes[1] += 1;
                                                                            }

                                                                            else {
                                                                                votes[0] += 1;
                                                                            }
                                                                        }
                                                                    }
                                                                }
                                                            }
                                                        }
                                                    }

                                                    else {
                                                        if (x[5] <= 104.3395004272461) {
                                                            votes[1] += 1;
                                                        }

                                                        else {
                                                            if (x[0] <= 0.6904999911785126) {
                                                                if (x[2] <= 2.3260000348091125) {
                                                                    votes[0] += 1;
                                                                }

                                                                else {
                                                                    votes[1] += 1;
                                                                }
                                                            }

                                                            else {
                                                                votes[0] += 1;
                                                            }
                                                        }
                                                    }
                                                }

                                                else {
                                                    if (x[3] <= 2.1665000319480896) {
                                                        if (x[5] <= 10.864500403404236) {
                                                            votes[1] += 1;
                                                        }

                                                        else {
                                                            votes[0] += 1;
                                                        }
                                                    }

                                                    else {
                                                        votes[1] += 1;
                                                    }
                                                }
                                            }
                                        }
                                    }
                                }
                            }
                        }

                        else {
                            if (x[4] <= 87.31100082397461) {
                                if (x[0] <= 0.8815000057220459) {
                                    if (x[0] <= -1.0525000095367432) {
                                        if (x[5] <= -193.20700073242188) {
                                            votes[0] += 1;
                                        }

                                        else {
                                            votes[1] += 1;
                                        }
                                    }

                                    else {
                                        if (x[0] <= 0.6290000081062317) {
                                            if (x[3] <= 285.18650817871094) {
                                                if (x[2] <= -0.45099999755620956) {
                                                    votes[1] += 1;
                                                }

                                                else {
                                                    if (x[3] <= 191.83349609375) {
                                                        if (x[2] <= 0.8585000038146973) {
                                                            votes[0] += 1;
                                                        }

                                                        else {
                                                            if (x[2] <= 0.8595000207424164) {
                                                                votes[1] += 1;
                                                            }

                                                            else {
                                                                if (x[4] <= 70.22100067138672) {
                                                                    votes[0] += 1;
                                                                }

                                                                else {
                                                                    votes[1] += 1;
                                                                }
                                                            }
                                                        }
                                                    }

                                                    else {
                                                        if (x[4] <= -32.13499975204468) {
                                                            votes[1] += 1;
                                                        }

                                                        else {
                                                            votes[0] += 1;
                                                        }
                                                    }
                                                }
                                            }

                                            else {
                                                votes[1] += 1;
                                            }
                                        }

                                        else {
                                            if (x[2] <= 0.7285000085830688) {
                                                if (x[4] <= -72.53999900817871) {
                                                    votes[1] += 1;
                                                }

                                                else {
                                                    if (x[0] <= 0.6344999969005585) {
                                                        if (x[5] <= -4.5774993896484375) {
                                                            votes[1] += 1;
                                                        }

                                                        else {
                                                            votes[0] += 1;
                                                        }
                                                    }

                                                    else {
                                                        votes[0] += 1;
                                                    }
                                                }
                                            }

                                            else {
                                                votes[1] += 1;
                                            }
                                        }
                                    }
                                }

                                else {
                                    votes[1] += 1;
                                }
                            }

                            else {
                                if (x[4] <= 148.49849700927734) {
                                    if (x[1] <= 1.1805000305175781) {
                                        votes[1] += 1;
                                    }

                                    else {
                                        if (x[0] <= 0.11700000241398811) {
                                            votes[0] += 1;
                                        }

                                        else {
                                            votes[1] += 1;
                                        }
                                    }
                                }

                                else {
                                    votes[1] += 1;
                                }
                            }
                        }

                        // return argmax of votes
                        uint8_t classIdx = 0;
                        float maxVotes = votes[0];

                        for (uint8_t i = 1; i < 2; i++) {
                            if (votes[i] > maxVotes) {
                                classIdx = i;
                                maxVotes = votes[i];
                            }
                        }

                        return classIdx;
                    }

                    /**
                    * Predict readable class name
                    */
                    const char* predictLabel(float *x) {
                        return idxToLabel(predict(x));
                    }

                    /**
                    * Convert class idx to readable name
                    */
                    const char* idxToLabel(uint8_t classIdx) {
                        switch (classIdx) {
                            case 0:
                            return "wave";
                            case 1:
                            return "fistbump";
                            default:
                            return "Houston we have a problem";
                        }
                    }

                protected:
                };
            }
        }
    }