#pragma once
#include <cstdarg>
namespace Eloquent {
    namespace ML {
        namespace Port {
            class Classifier {
                public:
                    /**
                    * Predict class for features vector
                    */
                    int predict(float *x) {
                        uint8_t votes[4] = { 0 };
                        // tree #1
                        if (x[7] <= 19.6299991607666) {
                            if (x[31] <= 1.809999942779541) {
                                votes[0] += 1;
                            }

                            else {
                                votes[2] += 1;
                            }
                        }

                        else {
                            if (x[11] <= 10.53999948501587) {
                                votes[0] += 1;
                            }

                            else {
                                votes[1] += 1;
                            }
                        }

                        // tree #2
                        if (x[16] <= 18.6299991607666) {
                            if (x[41] <= 2.549999952316284) {
                                votes[2] += 1;
                            }

                            else {
                                votes[1] += 1;
                            }
                        }

                        else {
                            if (x[7] <= 24.389999389648438) {
                                votes[0] += 1;
                            }

                            else {
                                votes[3] += 1;
                            }
                        }

                        // tree #3
                        if (x[42] <= 4.359999895095825) {
                            if (x[0] <= 56.889997482299805) {
                                votes[2] += 1;
                            }

                            else {
                                votes[0] += 1;
                            }
                        }

                        else {
                            if (x[48] <= 7.659999847412109) {
                                votes[1] += 1;
                            }

                            else {
                                votes[3] += 1;
                            }
                        }

                        // tree #4
                        if (x[16] <= 116.94999694824219) {
                            if (x[5] <= 29.210000038146973) {
                                votes[2] += 1;
                            }

                            else {
                                votes[1] += 1;
                            }
                        }

                        else {
                            if (x[11] <= 13.269999504089355) {
                                votes[0] += 1;
                            }

                            else {
                                votes[2] += 1;
                            }
                        }

                        // tree #5
                        if (x[4] <= 51.2599983215332) {
                            if (x[16] <= 5.680000066757202) {
                                votes[2] += 1;
                            }

                            else {
                                votes[0] += 1;
                            }
                        }

                        else {
                            if (x[6] <= 30.059999465942383) {
                                votes[2] += 1;
                            }

                            else {
                                votes[1] += 1;
                            }
                        }

                        // tree #6
                        if (x[19] <= 6.169999837875366) {
                            if (x[6] <= 25.719999313354492) {
                                votes[2] += 1;
                            }

                            else {
                                votes[1] += 1;
                            }
                        }

                        else {
                            if (x[47] <= 13.9399995803833) {
                                votes[0] += 1;
                            }

                            else {
                                votes[1] += 1;
                            }
                        }

                        // tree #7
                        if (x[4] <= 23.56999969482422) {
                            if (x[47] <= 7.659999847412109) {
                                votes[2] += 1;
                            }

                            else {
                                votes[1] += 1;
                            }
                        }

                        else {
                            if (x[8] <= 15.949999809265137) {
                                votes[2] += 1;
                            }

                            else {
                                votes[1] += 1;
                            }
                        }

                        // tree #8
                        if (x[19] <= 11.699999809265137) {
                            if (x[38] <= 5.680000066757202) {
                                votes[0] += 1;
                            }

                            else {
                                votes[2] += 1;
                            }
                        }

                        else {
                            if (x[17] <= 12.019999504089355) {
                                votes[1] += 1;
                            }

                            else {
                                votes[3] += 1;
                            }
                        }

                        // tree #9
                        if (x[16] <= 11.989999771118164) {
                            if (x[4] <= 30.049999237060547) {
                                votes[2] += 1;
                            }

                            else {
                                votes[0] += 1;
                            }
                        }

                        else {
                            if (x[12] <= 7.170000076293945) {
                                votes[0] += 1;
                            }

                            else {
                                votes[3] += 1;
                            }
                        }

                        // tree #10
                        if (x[5] <= 31.299999237060547) {
                            if (x[23] <= 8.049999713897705) {
                                votes[2] += 1;
                            }

                            else {
                                votes[0] += 1;
                            }
                        }

                        else {
                            if (x[17] <= 14.25) {
                                votes[1] += 1;
                            }

                            else {
                                votes[3] += 1;
                            }
                        }

                        // tree #11
                        if (x[33] <= 7.659999847412109) {
                            if (x[55] <= 4.359999895095825) {
                                votes[0] += 1;
                            }

                            else {
                                votes[3] += 1;
                            }
                        }

                        else {
                            if (x[12] <= 40.21999931335449) {
                                votes[1] += 1;
                            }

                            else {
                                votes[3] += 1;
                            }
                        }

                        // tree #12
                        if (x[7] <= 19.6299991607666) {
                            if (x[48] <= 8.049999713897705) {
                                votes[2] += 1;
                            }

                            else {
                                votes[1] += 1;
                            }
                        }

                        else {
                            if (x[37] <= 15.980000019073486) {
                                votes[0] += 1;
                            }

                            else {
                                votes[1] += 1;
                            }
                        }

                        // tree #13
                        if (x[15] <= 13.039999961853027) {
                            if (x[20] <= 7.659999847412109) {
                                votes[2] += 1;
                            }

                            else {
                                votes[0] += 1;
                            }
                        }

                        else {
                            if (x[7] <= 116.49999618530273) {
                                votes[3] += 1;
                            }

                            else {
                                votes[1] += 1;
                            }
                        }

                        // tree #14
                        if (x[42] <= 4.359999895095825) {
                            if (x[7] <= 8.549999952316284) {
                                votes[2] += 1;
                            }

                            else {
                                votes[0] += 1;
                            }
                        }

                        else {
                            if (x[11] <= 58.49999809265137) {
                                votes[1] += 1;
                            }

                            else {
                                votes[3] += 1;
                            }
                        }

                        // tree #15
                        if (x[18] <= 12.789999961853027) {
                            if (x[42] <= 4.359999895095825) {
                                votes[0] += 1;
                            }

                            else {
                                votes[1] += 1;
                            }
                        }

                        else {
                            if (x[28] <= 9.889999389648438) {
                                votes[3] += 1;
                            }

                            else {
                                votes[0] += 1;
                            }
                        }

                        // tree #16
                        if (x[5] <= 30.479999542236328) {
                            if (x[32] <= 4.940000057220459) {
                                votes[0] += 1;
                            }

                            else {
                                votes[2] += 1;
                            }
                        }

                        else {
                            if (x[63] <= 5.680000066757202) {
                                votes[1] += 1;
                            }

                            else {
                                votes[3] += 1;
                            }
                        }

                        // tree #17
                        if (x[9] <= 11.149999618530273) {
                            if (x[60] <= 4.359999895095825) {
                                votes[0] += 1;
                            }

                            else {
                                votes[2] += 1;
                            }
                        }

                        else {
                            if (x[37] <= 15.349999904632568) {
                                votes[3] += 1;
                            }

                            else {
                                votes[1] += 1;
                            }
                        }

                        // tree #18
                        if (x[6] <= 27.60999870300293) {
                            if (x[1] <= 23.339999675750732) {
                                votes[1] += 1;
                            }

                            else {
                                votes[2] += 1;
                            }
                        }

                        else {
                            if (x[18] <= 39.14999961853027) {
                                votes[1] += 1;
                            }

                            else {
                                votes[0] += 1;
                            }
                        }

                        // tree #19
                        if (x[51] <= 5.680000066757202) {
                            if (x[42] <= 5.680000066757202) {
                                votes[0] += 1;
                            }

                            else {
                                votes[1] += 1;
                            }
                        }

                        else {
                            if (x[6] <= 101.47999954223633) {
                                votes[1] += 1;
                            }

                            else {
                                votes[3] += 1;
                            }
                        }

                        // tree #20
                        if (x[6] <= 25.719999313354492) {
                            if (x[12] <= 5.680000066757202) {
                                votes[0] += 1;
                            }

                            else {
                                votes[2] += 1;
                            }
                        }

                        else {
                            if (x[55] <= 4.359999895095825) {
                                votes[0] += 1;
                            }

                            else {
                                votes[1] += 1;
                            }
                        }

                        // tree #21
                        if (x[4] <= 26.999999046325684) {
                            if (x[1] <= 29.09000015258789) {
                                votes[1] += 1;
                            }

                            else {
                                votes[2] += 1;
                            }
                        }

                        else {
                            if (x[15] <= 18.59999942779541) {
                                votes[1] += 1;
                            }

                            else {
                                votes[3] += 1;
                            }
                        }

                        // tree #22
                        if (x[17] <= 14.699999809265137) {
                            if (x[11] <= 33.5600004196167) {
                                votes[2] += 1;
                            }

                            else {
                                votes[1] += 1;
                            }
                        }

                        else {
                            if (x[59] <= 14.009999752044678) {
                                votes[3] += 1;
                            }

                            else {
                                votes[1] += 1;
                            }
                        }

                        // tree #23
                        if (x[12] <= 20.609999656677246) {
                            if (x[55] <= 4.940000057220459) {
                                votes[0] += 1;
                            }

                            else {
                                votes[2] += 1;
                            }
                        }

                        else {
                            if (x[51] <= 4.359999895095825) {
                                votes[1] += 1;
                            }

                            else {
                                votes[3] += 1;
                            }
                        }

                        // tree #24
                        if (x[58] <= 4.359999895095825) {
                            if (x[6] <= 27.939998626708984) {
                                votes[2] += 1;
                            }

                            else {
                                votes[0] += 1;
                            }
                        }

                        else {
                            if (x[1] <= 63.39999771118164) {
                                votes[1] += 1;
                            }

                            else {
                                votes[3] += 1;
                            }
                        }

                        // tree #25
                        if (x[52] <= 1.809999942779541) {
                            if (x[8] <= 14.25) {
                                votes[2] += 1;
                            }

                            else {
                                votes[0] += 1;
                            }
                        }

                        else {
                            if (x[9] <= 40.760000228881836) {
                                votes[0] += 1;
                            }

                            else {
                                votes[3] += 1;
                            }
                        }

                        // tree #26
                        if (x[22] <= 21.329999923706055) {
                            if (x[8] <= 21.3799991607666) {
                                votes[2] += 1;
                            }

                            else {
                                votes[1] += 1;
                            }
                        }

                        else {
                            votes[0] += 1;
                        }

                        // tree #27
                        if (x[6] <= 25.719999313354492) {
                            if (x[19] <= 5.680000066757202) {
                                votes[2] += 1;
                            }

                            else {
                                votes[0] += 1;
                            }
                        }

                        else {
                            if (x[16] <= 9.53999948501587) {
                                votes[0] += 1;
                            }

                            else {
                                votes[1] += 1;
                            }
                        }

                        // tree #28
                        if (x[55] <= 4.359999895095825) {
                            if (x[60] <= 1.809999942779541) {
                                votes[1] += 1;
                            }

                            else {
                                votes[0] += 1;
                            }
                        }

                        else {
                            if (x[45] <= 13.28000020980835) {
                                votes[1] += 1;
                            }

                            else {
                                votes[3] += 1;
                            }
                        }

                        // tree #29
                        if (x[10] <= 26.769999504089355) {
                            if (x[8] <= 13.78000020980835) {
                                votes[2] += 1;
                            }

                            else {
                                votes[1] += 1;
                            }
                        }

                        else {
                            if (x[17] <= 12.269999980926514) {
                                votes[1] += 1;
                            }

                            else {
                                votes[3] += 1;
                            }
                        }

                        // tree #30
                        if (x[17] <= 7.659999847412109) {
                            if (x[49] <= 6.75) {
                                votes[2] += 1;
                            }

                            else {
                                votes[1] += 1;
                            }
                        }

                        else {
                            if (x[40] <= 9.209999561309814) {
                                votes[0] += 1;
                            }

                            else {
                                votes[1] += 1;
                            }
                        }

                        // tree #31
                        if (x[10] <= 13.289999961853027) {
                            if (x[21] <= 6.979999780654907) {
                                votes[2] += 1;
                            }

                            else {
                                votes[0] += 1;
                            }
                        }

                        else {
                            if (x[6] <= 27.60999870300293) {
                                votes[2] += 1;
                            }

                            else {
                                votes[1] += 1;
                            }
                        }

                        // tree #32
                        if (x[9] <= 11.109999656677246) {
                            if (x[57] <= 4.359999895095825) {
                                votes[0] += 1;
                            }

                            else {
                                votes[2] += 1;
                            }
                        }

                        else {
                            if (x[0] <= 65.6200008392334) {
                                votes[1] += 1;
                            }

                            else {
                                votes[0] += 1;
                            }
                        }

                        // tree #33
                        if (x[18] <= 5.680000066757202) {
                            if (x[33] <= 8.049999713897705) {
                                votes[2] += 1;
                            }

                            else {
                                votes[1] += 1;
                            }
                        }

                        else {
                            if (x[11] <= 56.529998779296875) {
                                votes[1] += 1;
                            }

                            else {
                                votes[3] += 1;
                            }
                        }

                        // tree #34
                        if (x[8] <= 17.909998893737793) {
                            if (x[3] <= 24.059999465942383) {
                                votes[2] += 1;
                            }

                            else {
                                votes[2] += 1;
                            }
                        }

                        else {
                            if (x[17] <= 22.449999809265137) {
                                votes[1] += 1;
                            }

                            else {
                                votes[3] += 1;
                            }
                        }

                        // tree #35
                        if (x[4] <= 28.579999923706055) {
                            if (x[14] <= 17.53999900817871) {
                                votes[2] += 1;
                            }

                            else {
                                votes[0] += 1;
                            }
                        }

                        else {
                            if (x[42] <= 17.719999313354492) {
                                votes[1] += 1;
                            }

                            else {
                                votes[3] += 1;
                            }
                        }

                        // tree #36
                        if (x[18] <= 6.5899999141693115) {
                            if (x[2] <= 63.10999870300293) {
                                votes[2] += 1;
                            }

                            else {
                                votes[1] += 1;
                            }
                        }

                        else {
                            if (x[6] <= 8.46999979019165) {
                                votes[2] += 1;
                            }

                            else {
                                votes[1] += 1;
                            }
                        }

                        // tree #37
                        if (x[7] <= 10.039999961853027) {
                            if (x[1] <= 44.08999824523926) {
                                votes[0] += 1;
                            }

                            else {
                                votes[2] += 1;
                            }
                        }

                        else {
                            if (x[41] <= 4.359999895095825) {
                                votes[0] += 1;
                            }

                            else {
                                votes[1] += 1;
                            }
                        }

                        // tree #38
                        if (x[59] <= 14.009999752044678) {
                            if (x[9] <= 12.789999961853027) {
                                votes[2] += 1;
                            }

                            else {
                                votes[3] += 1;
                            }
                        }

                        else {
                            votes[1] += 1;
                        }

                        // tree #39
                        if (x[6] <= 27.719999313354492) {
                            if (x[4] <= 44.05999946594238) {
                                votes[2] += 1;
                            }

                            else {
                                votes[2] += 1;
                            }
                        }

                        else {
                            if (x[21] <= 21.399999618530273) {
                                votes[1] += 1;
                            }

                            else {
                                votes[0] += 1;
                            }
                        }

                        // tree #40
                        if (x[11] <= 21.52999973297119) {
                            if (x[41] <= 1.809999942779541) {
                                votes[2] += 1;
                            }

                            else {
                                votes[0] += 1;
                            }
                        }

                        else {
                            if (x[13] <= 18.6299991607666) {
                                votes[3] += 1;
                            }

                            else {
                                votes[1] += 1;
                            }
                        }

                        // tree #41
                        if (x[37] <= 15.980000019073486) {
                            if (x[7] <= 21.84999942779541) {
                                votes[2] += 1;
                            }

                            else {
                                votes[0] += 1;
                            }
                        }

                        else {
                            votes[1] += 1;
                        }

                        // tree #42
                        if (x[59] <= 1.809999942779541) {
                            if (x[34] <= 6.75) {
                                votes[2] += 1;
                            }

                            else {
                                votes[1] += 1;
                            }
                        }

                        else {
                            if (x[61] <= 7.659999847412109) {
                                votes[0] += 1;
                            }

                            else {
                                votes[3] += 1;
                            }
                        }

                        // tree #43
                        if (x[34] <= 6.75) {
                            if (x[6] <= 11.709999561309814) {
                                votes[2] += 1;
                            }

                            else {
                                votes[0] += 1;
                            }
                        }

                        else {
                            if (x[57] <= 8.46999979019165) {
                                votes[1] += 1;
                            }

                            else {
                                votes[3] += 1;
                            }
                        }

                        // tree #44
                        if (x[8] <= 15.949999809265137) {
                            if (x[57] <= 1.809999942779541) {
                                votes[2] += 1;
                            }

                            else {
                                votes[2] += 1;
                            }
                        }

                        else {
                            if (x[22] <= 9.889999389648438) {
                                votes[1] += 1;
                            }

                            else {
                                votes[3] += 1;
                            }
                        }

                        // tree #45
                        if (x[59] <= 1.809999942779541) {
                            if (x[47] <= 7.659999847412109) {
                                votes[2] += 1;
                            }

                            else {
                                votes[1] += 1;
                            }
                        }

                        else {
                            if (x[9] <= 95.56999588012695) {
                                votes[0] += 1;
                            }

                            else {
                                votes[3] += 1;
                            }
                        }

                        // tree #46
                        if (x[12] <= 20.609999656677246) {
                            if (x[50] <= 4.359999895095825) {
                                votes[2] += 1;
                            }

                            else {
                                votes[0] += 1;
                            }
                        }

                        else {
                            if (x[59] <= 7.659999847412109) {
                                votes[3] += 1;
                            }

                            else {
                                votes[0] += 1;
                            }
                        }

                        // tree #47
                        if (x[5] <= 29.210000038146973) {
                            if (x[35] <= 4.359999895095825) {
                                votes[2] += 1;
                            }

                            else {
                                votes[2] += 1;
                            }
                        }

                        else {
                            if (x[55] <= 13.460000038146973) {
                                votes[1] += 1;
                            }

                            else {
                                votes[2] += 1;
                            }
                        }

                        // tree #48
                        if (x[16] <= 11.989999771118164) {
                            if (x[5] <= 36.81999969482422) {
                                votes[2] += 1;
                            }

                            else {
                                votes[0] += 1;
                            }
                        }

                        else {
                            if (x[15] <= 20.00999927520752) {
                                votes[1] += 1;
                            }

                            else {
                                votes[3] += 1;
                            }
                        }

                        // tree #49
                        if (x[11] <= 21.52999973297119) {
                            if (x[22] <= 5.680000066757202) {
                                votes[2] += 1;
                            }

                            else {
                                votes[0] += 1;
                            }
                        }

                        else {
                            if (x[23] <= 9.889999389648438) {
                                votes[1] += 1;
                            }

                            else {
                                votes[0] += 1;
                            }
                        }

                        // tree #50
                        if (x[11] <= 21.52999973297119) {
                            if (x[5] <= 10.309999942779541) {
                                votes[2] += 1;
                            }

                            else {
                                votes[0] += 1;
                            }
                        }

                        else {
                            if (x[1] <= 61.689998626708984) {
                                votes[1] += 1;
                            }

                            else {
                                votes[3] += 1;
                            }
                        }

                        // tree #51
                        if (x[17] <= 9.209999561309814) {
                            if (x[0] <= 40.619998931884766) {
                                votes[1] += 1;
                            }

                            else {
                                votes[2] += 1;
                            }
                        }

                        else {
                            if (x[15] <= 18.59999942779541) {
                                votes[0] += 1;
                            }

                            else {
                                votes[3] += 1;
                            }
                        }

                        // tree #52
                        if (x[6] <= 30.809999465942383) {
                            if (x[23] <= 7.559999942779541) {
                                votes[2] += 1;
                            }

                            else {
                                votes[0] += 1;
                            }
                        }

                        else {
                            if (x[19] <= 19.639999389648438) {
                                votes[1] += 1;
                            }

                            else {
                                votes[0] += 1;
                            }
                        }

                        // tree #53
                        if (x[7] <= 15.919999122619629) {
                            if (x[17] <= 11.87999963760376) {
                                votes[2] += 1;
                            }

                            else {
                                votes[2] += 1;
                            }
                        }

                        else {
                            if (x[12] <= 20.609999656677246) {
                                votes[0] += 1;
                            }

                            else {
                                votes[1] += 1;
                            }
                        }

                        // tree #54
                        if (x[12] <= 20.609999656677246) {
                            if (x[7] <= 9.130000114440918) {
                                votes[2] += 1;
                            }

                            else {
                                votes[0] += 1;
                            }
                        }

                        else {
                            if (x[51] <= 4.359999895095825) {
                                votes[1] += 1;
                            }

                            else {
                                votes[3] += 1;
                            }
                        }

                        // tree #55
                        if (x[57] <= 4.359999895095825) {
                            if (x[2] <= 43.779998779296875) {
                                votes[2] += 1;
                            }

                            else {
                                votes[0] += 1;
                            }
                        }

                        else {
                            if (x[52] <= 5.680000066757202) {
                                votes[2] += 1;
                            }

                            else {
                                votes[3] += 1;
                            }
                        }

                        // tree #56
                        if (x[7] <= 16.769999504089355) {
                            if (x[10] <= 1.809999942779541) {
                                votes[0] += 1;
                            }

                            else {
                                votes[2] += 1;
                            }
                        }

                        else {
                            if (x[21] <= 6.169999837875366) {
                                votes[1] += 1;
                            }

                            else {
                                votes[1] += 1;
                            }
                        }

                        // tree #57
                        if (x[4] <= 23.56999969482422) {
                            if (x[27] <= 7.170000076293945) {
                                votes[2] += 1;
                            }

                            else {
                                votes[0] += 1;
                            }
                        }

                        else {
                            if (x[15] <= 13.039999961853027) {
                                votes[0] += 1;
                            }

                            else {
                                votes[3] += 1;
                            }
                        }

                        // tree #58
                        if (x[12] <= 20.609999656677246) {
                            if (x[0] <= 48.619998931884766) {
                                votes[1] += 1;
                            }

                            else {
                                votes[0] += 1;
                            }
                        }

                        else {
                            if (x[39] <= 1.809999942779541) {
                                votes[1] += 1;
                            }

                            else {
                                votes[3] += 1;
                            }
                        }

                        // tree #59
                        if (x[41] <= 1.809999942779541) {
                            if (x[18] <= 4.359999895095825) {
                                votes[2] += 1;
                            }

                            else {
                                votes[0] += 1;
                            }
                        }

                        else {
                            if (x[0] <= 57.22999954223633) {
                                votes[1] += 1;
                            }

                            else {
                                votes[0] += 1;
                            }
                        }

                        // tree #60
                        if (x[18] <= 5.680000066757202) {
                            if (x[46] <= 7.659999847412109) {
                                votes[2] += 1;
                            }

                            else {
                                votes[1] += 1;
                            }
                        }

                        else {
                            if (x[16] <= 10.949999809265137) {
                                votes[0] += 1;
                            }

                            else {
                                votes[1] += 1;
                            }
                        }

                        // tree #61
                        if (x[44] <= 9.889999389648438) {
                            if (x[42] <= 4.359999895095825) {
                                votes[0] += 1;
                            }

                            else {
                                votes[1] += 1;
                            }
                        }

                        else {
                            if (x[38] <= 14.699999809265137) {
                                votes[3] += 1;
                            }

                            else {
                                votes[1] += 1;
                            }
                        }

                        // tree #62
                        if (x[5] <= 15.949999809265137) {
                            if (x[16] <= 14.659999370574951) {
                                votes[2] += 1;
                            }

                            else {
                                votes[1] += 1;
                            }
                        }

                        else {
                            if (x[42] <= 4.359999895095825) {
                                votes[0] += 1;
                            }

                            else {
                                votes[1] += 1;
                            }
                        }

                        // tree #63
                        if (x[9] <= 10.829999446868896) {
                            if (x[1] <= 50.88999938964844) {
                                votes[0] += 1;
                            }

                            else {
                                votes[2] += 1;
                            }
                        }

                        else {
                            if (x[6] <= 32.5600004196167) {
                                votes[2] += 1;
                            }

                            else {
                                votes[1] += 1;
                            }
                        }

                        // tree #64
                        if (x[42] <= 4.359999895095825) {
                            if (x[7] <= 111.59999465942383) {
                                votes[0] += 1;
                            }

                            else {
                                votes[3] += 1;
                            }
                        }

                        else {
                            if (x[35] <= 13.039999961853027) {
                                votes[3] += 1;
                            }

                            else {
                                votes[1] += 1;
                            }
                        }

                        // tree #65
                        if (x[10] <= 19.649999618530273) {
                            if (x[4] <= 50.99999809265137) {
                                votes[2] += 1;
                            }

                            else {
                                votes[0] += 1;
                            }
                        }

                        else {
                            if (x[15] <= 19.309999465942383) {
                                votes[1] += 1;
                            }

                            else {
                                votes[3] += 1;
                            }
                        }

                        // tree #66
                        if (x[3] <= 30.50999927520752) {
                            if (x[18] <= 4.940000057220459) {
                                votes[2] += 1;
                            }

                            else {
                                votes[0] += 1;
                            }
                        }

                        else {
                            if (x[23] <= 9.889999389648438) {
                                votes[1] += 1;
                            }

                            else {
                                votes[0] += 1;
                            }
                        }

                        // tree #67
                        if (x[3] <= 83.52999877929688) {
                            if (x[16] <= 67.60999870300293) {
                                votes[1] += 1;
                            }

                            else {
                                votes[0] += 1;
                            }
                        }

                        else {
                            if (x[5] <= 147.94000244140625) {
                                votes[3] += 1;
                            }

                            else {
                                votes[1] += 1;
                            }
                        }

                        // tree #68
                        if (x[40] <= 11.149999618530273) {
                            if (x[8] <= 13.78000020980835) {
                                votes[2] += 1;
                            }

                            else {
                                votes[1] += 1;
                            }
                        }

                        else {
                            votes[3] += 1;
                        }

                        // tree #69
                        if (x[6] <= 20.299999237060547) {
                            if (x[0] <= 40.459999084472656) {
                                votes[1] += 1;
                            }

                            else {
                                votes[2] += 1;
                            }
                        }

                        else {
                            if (x[2] <= 34.249999046325684) {
                                votes[2] += 1;
                            }

                            else {
                                votes[1] += 1;
                            }
                        }

                        // tree #70
                        if (x[45] <= 7.659999847412109) {
                            if (x[21] <= 16.139999389648438) {
                                votes[1] += 1;
                            }

                            else {
                                votes[0] += 1;
                            }
                        }

                        else {
                            if (x[35] <= 13.759999752044678) {
                                votes[3] += 1;
                            }

                            else {
                                votes[1] += 1;
                            }
                        }

                        // tree #71
                        if (x[7] <= 46.779998779296875) {
                            if (x[4] <= 26.999999046325684) {
                                votes[2] += 1;
                            }

                            else {
                                votes[0] += 1;
                            }
                        }

                        else {
                            if (x[7] <= 117.20999908447266) {
                                votes[3] += 1;
                            }

                            else {
                                votes[1] += 1;
                            }
                        }

                        // tree #72
                        if (x[0] <= 57.28999900817871) {
                            if (x[4] <= 27.329999923706055) {
                                votes[2] += 1;
                            }

                            else {
                                votes[1] += 1;
                            }
                        }

                        else {
                            if (x[39] <= 4.359999895095825) {
                                votes[0] += 1;
                            }

                            else {
                                votes[3] += 1;
                            }
                        }

                        // tree #73
                        if (x[16] <= 12.269999980926514) {
                            if (x[30] <= 4.359999895095825) {
                                votes[0] += 1;
                            }

                            else {
                                votes[1] += 1;
                            }
                        }

                        else {
                            if (x[22] <= 21.329999923706055) {
                                votes[1] += 1;
                            }

                            else {
                                votes[0] += 1;
                            }
                        }

                        // tree #74
                        if (x[5] <= 24.829999923706055) {
                            if (x[1] <= 29.09000015258789) {
                                votes[1] += 1;
                            }

                            else {
                                votes[2] += 1;
                            }
                        }

                        else {
                            if (x[10] <= 12.199999809265137) {
                                votes[0] += 1;
                            }

                            else {
                                votes[3] += 1;
                            }
                        }

                        // tree #75
                        if (x[19] <= 33.19999885559082) {
                            if (x[9] <= 23.02999973297119) {
                                votes[2] += 1;
                            }

                            else {
                                votes[1] += 1;
                            }
                        }

                        else {
                            if (x[62] <= 11.149999618530273) {
                                votes[0] += 1;
                            }

                            else {
                                votes[2] += 1;
                            }
                        }

                        // tree #76
                        if (x[12] <= 25.889999389648438) {
                            if (x[54] <= 4.359999895095825) {
                                votes[0] += 1;
                            }

                            else {
                                votes[2] += 1;
                            }
                        }

                        else {
                            if (x[7] <= 23.94999885559082) {
                                votes[0] += 1;
                            }

                            else {
                                votes[1] += 1;
                            }
                        }

                        // tree #77
                        if (x[42] <= 4.359999895095825) {
                            if (x[40] <= 1.809999942779541) {
                                votes[2] += 1;
                            }

                            else {
                                votes[0] += 1;
                            }
                        }

                        else {
                            if (x[45] <= 7.659999847412109) {
                                votes[1] += 1;
                            }

                            else {
                                votes[3] += 1;
                            }
                        }

                        // tree #78
                        if (x[12] <= 23.869999885559082) {
                            if (x[21] <= 6.169999837875366) {
                                votes[2] += 1;
                            }

                            else {
                                votes[0] += 1;
                            }
                        }

                        else {
                            if (x[15] <= 19.309999465942383) {
                                votes[1] += 1;
                            }

                            else {
                                votes[3] += 1;
                            }
                        }

                        // tree #79
                        if (x[9] <= 11.149999618530273) {
                            if (x[48] <= 8.049999713897705) {
                                votes[2] += 1;
                            }

                            else {
                                votes[1] += 1;
                            }
                        }

                        else {
                            if (x[15] <= 23.4399995803833) {
                                votes[1] += 1;
                            }

                            else {
                                votes[3] += 1;
                            }
                        }

                        // tree #80
                        if (x[26] <= 10.53999948501587) {
                            if (x[24] <= 7.659999847412109) {
                                votes[1] += 1;
                            }

                            else {
                                votes[3] += 1;
                            }
                        }

                        else {
                            if (x[22] <= 42.01999855041504) {
                                votes[0] += 1;
                            }

                            else {
                                votes[2] += 1;
                            }
                        }

                        // tree #81
                        if (x[16] <= 11.989999771118164) {
                            if (x[18] <= 5.680000066757202) {
                                votes[2] += 1;
                            }

                            else {
                                votes[0] += 1;
                            }
                        }

                        else {
                            if (x[37] <= 15.329999923706055) {
                                votes[1] += 1;
                            }

                            else {
                                votes[1] += 1;
                            }
                        }

                        // tree #82
                        if (x[6] <= 14.1899995803833) {
                            if (x[43] <= 1.809999942779541) {
                                votes[2] += 1;
                            }

                            else {
                                votes[0] += 1;
                            }
                        }

                        else {
                            if (x[8] <= 76.53999710083008) {
                                votes[0] += 1;
                            }

                            else {
                                votes[3] += 1;
                            }
                        }

                        // tree #83
                        if (x[55] <= 4.359999895095825) {
                            if (x[4] <= 23.56999969482422) {
                                votes[2] += 1;
                            }

                            else {
                                votes[0] += 1;
                            }
                        }

                        else {
                            if (x[58] <= 1.809999942779541) {
                                votes[2] += 1;
                            }

                            else {
                                votes[1] += 1;
                            }
                        }

                        // tree #84
                        if (x[8] <= 16.6899995803833) {
                            if (x[32] <= 1.809999942779541) {
                                votes[0] += 1;
                            }

                            else {
                                votes[2] += 1;
                            }
                        }

                        else {
                            if (x[35] <= 5.680000066757202) {
                                votes[0] += 1;
                            }

                            else {
                                votes[1] += 1;
                            }
                        }

                        // tree #85
                        if (x[16] <= 11.699999809265137) {
                            if (x[23] <= 7.559999942779541) {
                                votes[2] += 1;
                            }

                            else {
                                votes[0] += 1;
                            }
                        }

                        else {
                            if (x[6] <= 10.559999942779541) {
                                votes[2] += 1;
                            }

                            else {
                                votes[1] += 1;
                            }
                        }

                        // tree #86
                        if (x[16] <= 18.6299991607666) {
                            if (x[14] <= 14.4399995803833) {
                                votes[0] += 1;
                            }

                            else {
                                votes[1] += 1;
                            }
                        }

                        else {
                            if (x[11] <= 11.050000190734863) {
                                votes[0] += 1;
                            }

                            else {
                                votes[3] += 1;
                            }
                        }

                        // tree #87
                        if (x[7] <= 24.19999885559082) {
                            if (x[18] <= 5.680000066757202) {
                                votes[2] += 1;
                            }

                            else {
                                votes[0] += 1;
                            }
                        }

                        else {
                            if (x[14] <= 21.989999771118164) {
                                votes[1] += 1;
                            }

                            else {
                                votes[3] += 1;
                            }
                        }

                        // tree #88
                        if (x[8] <= 17.909998893737793) {
                            if (x[61] <= 1.809999942779541) {
                                votes[2] += 1;
                            }

                            else {
                                votes[0] += 1;
                            }
                        }

                        else {
                            if (x[35] <= 13.509999752044678) {
                                votes[3] += 1;
                            }

                            else {
                                votes[1] += 1;
                            }
                        }

                        // tree #89
                        if (x[18] <= 13.289999961853027) {
                            if (x[7] <= 16.949999809265137) {
                                votes[2] += 1;
                            }

                            else {
                                votes[0] += 1;
                            }
                        }

                        else {
                            if (x[22] <= 9.209999561309814) {
                                votes[1] += 1;
                            }

                            else {
                                votes[3] += 1;
                            }
                        }

                        // tree #90
                        if (x[5] <= 30.479999542236328) {
                            if (x[14] <= 1.809999942779541) {
                                votes[0] += 1;
                            }

                            else {
                                votes[2] += 1;
                            }
                        }

                        else {
                            if (x[29] <= 12.269999980926514) {
                                votes[1] += 1;
                            }

                            else {
                                votes[0] += 1;
                            }
                        }

                        // tree #91
                        if (x[10] <= 11.699999809265137) {
                            if (x[30] <= 13.850000143051147) {
                                votes[0] += 1;
                            }

                            else {
                                votes[2] += 1;
                            }
                        }

                        else {
                            if (x[16] <= 41.14999961853027) {
                                votes[1] += 1;
                            }

                            else {
                                votes[0] += 1;
                            }
                        }

                        // tree #92
                        if (x[8] <= 13.78000020980835) {
                            if (x[45] <= 4.359999895095825) {
                                votes[0] += 1;
                            }

                            else {
                                votes[2] += 1;
                            }
                        }

                        else {
                            if (x[63] <= 4.359999895095825) {
                                votes[1] += 1;
                            }

                            else {
                                votes[0] += 1;
                            }
                        }

                        // tree #93
                        if (x[6] <= 27.60999870300293) {
                            if (x[1] <= 50.88999938964844) {
                                votes[0] += 1;
                            }

                            else {
                                votes[2] += 1;
                            }
                        }

                        else {
                            if (x[32] <= 5.680000066757202) {
                                votes[3] += 1;
                            }

                            else {
                                votes[1] += 1;
                            }
                        }

                        // tree #94
                        if (x[40] <= 4.359999895095825) {
                            if (x[5] <= 16.639999389648438) {
                                votes[2] += 1;
                            }

                            else {
                                votes[0] += 1;
                            }
                        }

                        else {
                            if (x[36] <= 15.12999963760376) {
                                votes[3] += 1;
                            }

                            else {
                                votes[1] += 1;
                            }
                        }

                        // tree #95
                        if (x[13] <= 21.089999198913574) {
                            if (x[6] <= 25.719999313354492) {
                                votes[2] += 1;
                            }

                            else {
                                votes[0] += 1;
                            }
                        }

                        else {
                            if (x[17] <= 15.959999561309814) {
                                votes[1] += 1;
                            }

                            else {
                                votes[3] += 1;
                            }
                        }

                        // tree #96
                        if (x[7] <= 21.710000038146973) {
                            if (x[5] <= 17.889999389648438) {
                                votes[2] += 1;
                            }

                            else {
                                votes[2] += 1;
                            }
                        }

                        else {
                            if (x[9] <= 19.600000381469727) {
                                votes[0] += 1;
                            }

                            else {
                                votes[3] += 1;
                            }
                        }

                        // tree #97
                        if (x[47] <= 5.680000066757202) {
                            if (x[17] <= 4.359999895095825) {
                                votes[2] += 1;
                            }

                            else {
                                votes[0] += 1;
                            }
                        }

                        else {
                            if (x[8] <= 25.84000015258789) {
                                votes[1] += 1;
                            }

                            else {
                                votes[3] += 1;
                            }
                        }

                        // tree #98
                        if (x[21] <= 5.680000066757202) {
                            if (x[8] <= 15.5) {
                                votes[2] += 1;
                            }

                            else {
                                votes[1] += 1;
                            }
                        }

                        else {
                            if (x[7] <= 60.88999938964844) {
                                votes[0] += 1;
                            }

                            else {
                                votes[1] += 1;
                            }
                        }

                        // tree #99
                        if (x[47] <= 7.659999847412109) {
                            if (x[29] <= 9.209999561309814) {
                                votes[2] += 1;
                            }

                            else {
                                votes[0] += 1;
                            }
                        }

                        else {
                            if (x[2] <= 83.38999938964844) {
                                votes[1] += 1;
                            }

                            else {
                                votes[3] += 1;
                            }
                        }

                        // tree #100
                        if (x[18] <= 5.680000066757202) {
                            if (x[58] <= 5.680000066757202) {
                                votes[2] += 1;
                            }

                            else {
                                votes[1] += 1;
                            }
                        }

                        else {
                            if (x[10] <= 11.949999809265137) {
                                votes[0] += 1;
                            }

                            else {
                                votes[1] += 1;
                            }
                        }

                        // return argmax of votes
                        uint8_t classIdx = 0;
                        float maxVotes = votes[0];

                        for (uint8_t i = 1; i < 4; i++) {
                            if (votes[i] > maxVotes) {
                                classIdx = i;
                                maxVotes = votes[i];
                            }
                        }

                        return classIdx;
                    }

                protected:
                };
            }
        }
    }